{
  "psyllium_fiber": {
    "name": "psyllium_fiber",
    "w": [
      0.45571234822273254,
      -0.3318530023097992,
      -0.12744376063346863,
      -0.2850606441497803,
      0.2300083041191101,
      -0.1013760045170784,
      0.308706670999527,
      -0.17255482077598572,
      -0.23840074241161346,
      -0.255133718252182,
      -0.10710182785987854,
      0.1824861615896225,
      0.32339781522750854,
      0.2566710412502289,
      -0.1094391793012619,
      -0.21748392283916473
    ],
    "b": -0.4485936164855957
  },
  "minerals": {
    "name": "minerals",
    "w": [
      -0.2095140963792801,
      -0.34398216009140015,
      0.35150450468063354,
      -0.1714271605014801,
      0.20602840185165405,
      -0.3504107892513275,
      0.13820438086986542,
      -0.012674895115196705,
      0.07326625287532806,
      -0.14871567487716675,
      -0.09141535311937332,
      -0.3578888475894928,
      -0.2544099986553192,
      0.32281240820884705,
      0.1565810889005661,
      -0.3781077563762665
    ],
    "b": -0.23377344012260437
  },
  "vitamin_a": {
    "name": "vitamin_a",
    "w": [
      -0.08382833003997803,
      -0.28510844707489014,
      -0.10188624262809753,
      -0.3384358584880829,
      -0.1957613229751587,
      -0.28831568360328674,
      -0.16197578608989716,
      0.07303953915834427,
      0.0253121517598629,
      0.2743043899536133,
      -0.3290415406227112,
      -0.2737400233745575,
      -0.27845868468284607,
      0.24636763334274292,
      0.3307599723339081,
      -0.3564029335975647
    ],
    "b": -0.1561918705701828
  },
  "iron": {
    "name": "iron",
    "w": [
      0.11307022720575333,
      -0.16955196857452393,
      0.07101575285196304,
      -0.289340078830719,
      -0.1691581904888153,
      -0.2927855849266052,
      -0.3077045679092407,
      0.2851179838180542,
      0.28996074199676514,
      0.279619961977005,
      -0.3210226893424988,
      -0.2387915551662445,
      -0.18242891132831573,
      0.17294684052467346,
      0.2976134717464447,
      -0.32448095083236694
    ],
    "b": -0.8288396000862122
  },
  "phosphatidylserine": {
    "name": "phosphatidylserine",
    "w": [
      0.3448654115200043,
      0.35565251111984253,
      -0.19416625797748566,
      0.1841849684715271,
      -0.2513217628002167,
      0.24453051388263702,
      -0.23172685503959656,
      0.20771466195583344,
      0.18983639776706696,
      0.19917498528957367,
      0.29634204506874084,
      -0.1796024888753891,
      -0.23338647186756134,
      -0.2758568227291107,
      -0.2647019326686859,
      0.25833380222320557
    ],
    "b": -0.38332608342170715
  },
  "folic_acid": {
    "name": "folic_acid",
    "w": [
      0.10170230269432068,
      -0.1672879159450531,
      0.08227530121803284,
      -0.2851637303829193,
      -0.17387406527996063,
      -0.29366055130958557,
      -0.3068912923336029,
      0.2990674078464508,
      0.31038135290145874,
      0.2886662781238556,
      -0.31270548701286316,
      -0.22819387912750244,
      -0.18122060596942902,
      0.174825519323349,
      0.28655609488487244,
      -0.31376782059669495
    ],
    "b": -0.8282560110092163
  },
  "arginine": {
    "name": "arginine",
    "w": [
      -0.07271981239318848,
      0.07785951346158981,
      0.09089089930057526,
      -0.33185964822769165,
      -0.16419433057308197,
      -0.10559786111116409,
      -0.30073124170303345,
      0.32491493225097656,
      0.3167337477207184,
      0.32213088870048523,
      -0.31787219643592834,
      -0.17317399382591248,
      -0.10663497447967529,
      0.2963550090789795,
      0.30453935265541077,
      -0.33026638627052307
    ],
    "b": -0.13636261224746704
  },
  "chondroitin": {
    "name": "chondroitin",
    "w": [
      -0.058989495038986206,
      -0.23327308893203735,
      0.1860557347536087,
      -0.20630788803100586,
      -0.025127293542027473,
      -0.2692679464817047,
      -0.26453298330307007,
      0.23917987942695618,
      0.3218438923358917,
      0.2953311800956726,
      -0.290777325630188,
      -0.28454047441482544,
      -0.23248405754566193,
      0.24491208791732788,
      0.27503788471221924,
      -0.3443945646286011
    ],
    "b": -0.05706876888871193
  },
  "coq10": {
    "name": "coq10",
    "w": [
      -0.2583363652229309,
      -0.305386483669281,
      0.31706294417381287,
      -0.05309966206550598,
      -0.3257107436656952,
      -0.2513934373855591,
      0.053685616701841354,
      0.33911117911338806,
      0.3248651623725891,
      0.3391173481941223,
      -0.2119785100221634,
      0.17789101600646973,
      0.15543434023857117,
      0.013315420597791672,
      0.05398407205939293,
      -0.35372135043144226
    ],
    "b": -0.24855585396289825
  },
  "collagen": {
    "name": "collagen",
    "w": [
      -0.052872538566589355,
      -0.2545885741710663,
      -0.008082089014351368,
      -0.3074248433113098,
      -0.2881375551223755,
      -0.2741070091724396,
      -0.22014179825782776,
      0.27639758586883545,
      0.2856956422328949,
      0.3144172132015228,
      -0.28839167952537537,
      -0.17552787065505981,
      -0.10582628846168518,
      0.23493190109729767,
      0.29548072814941406,
      -0.3265528678894043
    ],
    "b": -0.14041098952293396
  },
  "vitamin_c": {
    "name": "vitamin_c",
    "w": [
      0.11570553481578827,
      0.03069113940000534,
      -0.03018183633685112,
      -0.33943983912467957,
      -0.2442641705274582,
      -0.13527706265449524,
      -0.31193843483924866,
      0.2598949670791626,
      0.2602299749851227,
      0.3012644648551941,
      -0.3370770812034607,
      -0.22279369831085205,
      -0.2297264188528061,
      0.18748296797275543,
      0.33500826358795166,
      -0.3237769901752472
    ],
    "b": -0.08911428600549698
  },
  "omega3": {
    "name": "omega3",
    "w": [
      -0.37033557891845703,
      -0.244471475481987,
      0.3659120202064514,
      0.1774674504995346,
      -0.2398361712694168,
      -0.26093578338623047,
      0.31303703784942627,
      0.06390466541051865,
      0.20187930762767792,
      0.22735652327537537,
      0.15883854031562805,
      0.37777775526046753,
      0.3227972686290741,
      -0.1474868357181549,
      -0.1499706357717514,
      0.03435885161161423
    ],
    "b": -0.1381315290927887
  },
  "calcium": {
    "name": "calcium",
    "w": [
      -0.23950204253196716,
      0.21563272178173065,
      0.27578115463256836,
      -0.2567310333251953,
      0.209626704454422,
      0.07241751998662949,
      -0.29477983713150024,
      0.26570945978164673,
      0.2904866933822632,
      0.11637173593044281,
      -0.2840504050254822,
      -0.28544333577156067,
      -0.2636452317237854,
      0.2912619411945343,
      0.23671960830688477,
      -0.2775338292121887
    ],
    "b": -0.1733912080526352
  },
  "lutein": {
    "name": "lutein",
    "w": [
      -0.2543782889842987,
      -0.33426815271377563,
      -0.346561461687088,
      -0.0943947359919548,
      0.13392721116542816,
      -0.1493971347808838,
      -0.3066628873348236,
      -0.23203155398368835,
      -0.23675699532032013,
      -0.1985863596200943,
      0.14342422783374786,
      -0.3221451938152313,
      0.23114021122455597,
      0.2008623480796814,
      0.2583676278591156,
      0.3550221025943756
    ],
    "b": -0.32929518818855286
  },
  "vitamin_d": {
    "name": "vitamin_d",
    "w": [
      -0.33618998527526855,
      0.35230299830436707,
      -0.3079433739185333,
      -0.2064865380525589,
      0.2823312282562256,
      -0.11381574720144272,
      -0.06991894543170929,
      -0.1916821300983429,
      -0.1733037382364273,
      -0.1684163510799408,
      -0.27753427624702454,
      0.23066693544387817,
      -0.385073184967041,
      0.185951367020607,
      0.34576669335365295,
      -0.007260424550622702
    ],
    "b": -0.3227452039718628
  },
  "milk_thistle": {
    "name": "milk_thistle",
    "w": [
      0.11525268852710724,
      -0.16991235315799713,
      0.07091987878084183,
      -0.2965291738510132,
      -0.17724569141864777,
      -0.2841532528400421,
      -0.30657485127449036,
      0.2858872413635254,
      0.3102761209011078,
      0.2978525161743164,
      -0.31018832325935364,
      -0.2318260371685028,
      -0.15154395997524261,
      0.1668820083141327,
      0.285748690366745,
      -0.331049382686615
    ],
    "b": -0.8269227147102356
  },
  "probiotics": {
    "name": "probiotics",
    "w": [
      0.1412288099527359,
      -0.21903766691684723,
      -0.09154936671257019,
      -0.28277498483657837,
      -0.19449114799499512,
      -0.05027351900935173,
      -0.3098543584346771,
      0.312782347202301,
      0.3060553967952728,
      0.21290303766727448,
      -0.28250858187675476,
      -0.2773774266242981,
      -0.22079749405384064,
      0.2814999222755432,
      0.2851233184337616,
      -0.3232665956020355
    ],
    "b": -0.08383557945489883
  },
  "vitamin_b": {
    "name": "vitamin_b",
    "w": [
      0.30413904786109924,
      0.26356860995292664,
      -0.14373408257961273,
      0.21325761079788208,
      -0.30638381838798523,
      0.23233120143413544,
      -0.26051872968673706,
      0.24866314232349396,
      0.24644429981708527,
      0.27237072587013245,
      -0.1354944109916687,
      -0.2891370356082916,
      -0.2862073481082916,
      -0.2550840675830841,
      -0.18739376962184906,
      -0.27452147006988525
    ],
    "b": -0.27191466093063354
  },
  "magnesium": {
    "name": "magnesium",
    "w": [
      0.28828445076942444,
      0.2357892245054245,
      -0.12070007622241974,
      0.2134520411491394,
      -0.31404075026512146,
      0.22091811895370483,
      -0.26983025670051575,
      0.26189884543418884,
      0.25092464685440063,
      0.26937490701675415,
      -0.1526327282190323,
      -0.3255710005760193,
      -0.2922651171684265,
      -0.22493641078472137,
      -0.1743638515472412,
      -0.28478437662124634
    ],
    "b": -0.2664249837398529
  },
  "garcinia": {
    "name": "garcinia",
    "w": [
      -0.10524396598339081,
      0.16242286562919617,
      -0.07831547409296036,
      0.28239578008651733,
      0.17846961319446564,
      0.29798445105552673,
      0.2857053577899933,
      -0.2901696562767029,
      -0.3023955225944519,
      -0.2910430431365967,
      0.3085884749889374,
      0.254719614982605,
      0.16134655475616455,
      -0.16951844096183777,
      -0.30397728085517883,
      0.32674187421798706
    ],
    "b": 0.8277267813682556
  },
  "multivitamin": {
    "name": "multivitamin",
    "w": [
      0.10397391021251678,
      -0.18108287453651428,
      0.08907592296600342,
      -0.28790679574012756,
      -0.1672711968421936,
      -0.28763434290885925,
      -0.3016582429409027,
      0.2919139266014099,
      0.30857524275779724,
      0.28358393907546997,
      -0.30784159898757935,
      -0.24420595169067383,
      -0.16960731148719788,
      0.16845545172691345,
      0.3027384281158447,
      -0.31593185663223267
    ],
    "b": -0.8287513852119446
  },
  "zinc": {
    "name": "zinc",
    "w": [
      -0.020474467426538467,
      0.07070078700780869,
      0.006156904622912407,
      -0.3231028914451599,
      -0.25368574261665344,
      -0.018617495894432068,
      -0.27783092856407166,
      0.3101832866668701,
      0.3039340078830719,
      0.3103417158126831,
      -0.3240741491317749,
      -0.2069055736064911,
      -0.16385672986507416,
      0.281715989112854,
      0.3188663125038147,
      -0.32807257771492004
    ],
    "b": -0.1399090439081192
  }
}